<?xml version="1.0"?>
<opencv_storage>
<my_svm type_id="opencv-ml-svm">
  <svm_type>C_SVC</svm_type>
  <kernel><type>RBF</type>
    <gamma>8.</gamma></kernel>
  <C>10.</C>
  <term_criteria><epsilon>1.1920928955078125e-007</epsilon>
    <iterations>2147483647</iterations></term_criteria>
  <var_all>4</var_all>
  <var_count>4</var_count>
  <class_count>4</class_count>
  <class_labels type_id="opencv-matrix">
    <rows>1</rows>
    <cols>4</cols>
    <dt>i</dt>
    <data>
      49 50 51 52</data></class_labels>
  <sv_total>55</sv_total>
  <support_vectors>
    <_>
      5.34130086e-004 2.77907762e-004 2.05512121e-002 9.99788642e-001</_>
    <_>
      5.07229008e-004 2.82524095e-004 2.04875935e-002 9.99789953e-001</_>
    <_>
      5.37572836e-004 3.59849946e-004 2.08172426e-002 9.99783099e-001</_>
    <_>
      4.65106423e-004 2.35607891e-004 2.13145986e-002 9.99772668e-001</_>
    <_>
      4.34821210e-004 3.54405813e-004 2.10254416e-002 9.99778807e-001</_>
    <_>
      5.17000153e-004 2.68846459e-004 1.96663309e-002 9.99806404e-001</_>
    <_>
      5.49841847e-004 2.37158747e-004 2.13261619e-002 9.99772370e-001</_>
    <_>
      4.49004263e-004 2.06101744e-004 2.14360431e-002 9.99770105e-001</_>
    <_>
      5.17000153e-004 2.68846459e-004 1.96663309e-002 9.99806404e-001</_>
    <_>
      5.07229008e-004 2.82524095e-004 2.04875935e-002 9.99789953e-001</_>
    <_>
      5.13728417e-004 3.22459760e-004 2.06553116e-002 9.99786496e-001</_>
    <_>
      5.74561069e-004 2.54932325e-004 2.19160262e-002 9.99759614e-001</_>
    <_>
      6.56794349e-004 2.66542542e-004 2.13724282e-002 9.99771357e-001</_>
    <_>
      6.98215968e-004 2.65549694e-004 2.16615777e-002 9.99765098e-001</_>
    <_>
      7.12945068e-004 2.40249850e-004 2.14476045e-002 9.99769688e-001</_>
    <_>
      1.60654687e-004 2.77181272e-004 5.08715436e-002 9.98705149e-001</_>
    <_>
      3.19101964e-004 4.37513576e-004 2.74260174e-002 9.99623716e-001</_>
    <_>
      1.73574095e-004 4.06354375e-004 3.14658917e-002 9.99504745e-001</_>
    <_>
      3.74918891e-004 2.46549636e-004 4.80693616e-002 9.98843908e-001</_>
    <_>
      3.41966923e-004 3.09047522e-004 4.42101993e-002 9.99022126e-001</_>
    <_>
      2.18141649e-004 2.84638576e-004 4.35581580e-002 9.99050856e-001</_>
    <_>
      1.97519999e-004 3.33460863e-004 4.52891253e-002 9.98973846e-001</_>
    <_>
      2.79299333e-004 2.86154798e-004 4.23289239e-002 9.99103665e-001</_>
    <_>
      1.91730796e-004 4.12503286e-004 3.18472572e-002 9.99492645e-001</_>
    <_>
      2.24628355e-004 4.07084415e-004 3.24366242e-002 9.99473691e-001</_>
    <_>
      1.63113087e-004 2.36476306e-004 5.17534651e-002 9.98659849e-001</_>
    <_>
      2.96671322e-004 2.54027254e-004 5.01624569e-002 9.98740971e-001</_>
    <_>
      1.95275512e-004 4.07879037e-004 3.34708169e-002 9.99439597e-001</_>
    <_>
      2.15672364e-004 4.03836282e-004 3.32974941e-002 9.99445379e-001</_>
    <_>
      1.59954012e-004 4.06350126e-004 3.30779478e-002 9.99452651e-001</_>
    <_>
      2.28159653e-004 1.57910428e-004 4.29406762e-002 9.99077559e-001</_>
    <_>
      2.16640532e-004 1.51274304e-004 4.97300588e-002 9.98762667e-001</_>
    <_>
      2.21546303e-004 1.77945607e-004 4.50583585e-002 9.98984337e-001</_>
    <_>
      2.53419304e-004 1.85361205e-004 4.14573774e-002 9.99140203e-001</_>
    <_>
      2.54860002e-004 1.72055501e-004 4.49141189e-002 9.98990834e-001</_>
    <_>
      2.32865015e-004 2.04357129e-004 4.25366946e-002 9.99094844e-001</_>
    <_>
      2.14056243e-004 1.53328336e-004 4.72734757e-002 9.98881936e-001</_>
    <_>
      2.35342784e-004 2.24810152e-004 4.13130783e-002 9.99146223e-001</_>
    <_>
      2.33964980e-004 2.05588396e-004 5.50322160e-002 9.98484552e-001</_>
    <_>
      1.96416673e-004 1.52533248e-004 5.48766740e-002 9.98493135e-001</_>
    <_>
      2.12501996e-004 1.48423715e-004 4.46602553e-002 9.99002218e-001</_>
    <_>
      2.21033435e-004 1.75478082e-004 4.32407670e-002 9.99064624e-001</_>
    <_>
      2.51554389e-004 2.16256056e-004 4.56698872e-002 9.98956501e-001</_>
    <_>
      2.00760362e-004 1.37434923e-004 4.86402735e-002 9.98816311e-001</_>
    <_>
      2.23467519e-004 1.83564756e-004 4.96954657e-002 9.98764396e-001</_>
    <_>
      1.48194362e-004 9.36087599e-005 7.58916065e-002 9.97116029e-001</_>
    <_>
      1.56584138e-004 9.15209021e-005 7.68037140e-002 9.97046232e-001</_>
    <_>
      1.55715781e-004 8.77843195e-005 7.99343735e-002 9.96800125e-001</_>
    <_>
      1.56854003e-004 9.72023772e-005 8.04158002e-002 9.96761382e-001</_>
    <_>
      1.48084655e-004 1.19147080e-004 7.71077126e-002 9.97022748e-001</_>
    <_>
      1.77924012e-004 8.93478937e-005 7.85012022e-002 9.96913970e-001</_>
    <_>
      1.51258180e-004 8.73058598e-005 8.05017725e-002 9.96754467e-001</_>
    <_>
      1.55715781e-004 8.77843195e-005 7.99343735e-002 9.96800125e-001</_>
    <_>
      1.19391771e-004 7.24958081e-005 8.49636495e-002 9.96384025e-001</_>
    <_>
      1.06796731e-004 9.30152382e-005 8.72470438e-002 9.96186674e-001</_></support_vectors>
  <decision_functions>
    <_>
      <sv_count>30</sv_count>
      <rho>-1.6213685274124146e-001</rho>
      <alpha>
        10. 10. 10. 10. 10. 10. 10. 10. 10. 10. 10. 10. 10. 10. 10. -10.
        -10. -10. -10. -10. -10. -10. -10. -10. -10. -10. -10. -10. -10.
        -10.</alpha>
      <index>
        0 1 2 3 4 5 6 7 8 9 10 11 12 13 14 15 16 17 18 19 20 21 22 23 24
        25 26 27 28 29</index></_>
    <_>
      <sv_count>30</sv_count>
      <rho>-2.0161747932434082e-001</rho>
      <alpha>
        10. 10. 10. 10. 10. 10. 10. 10. 1.8729547641963427e+000 10. 10.
        10. 10. 10. 10. -10. -10. -10. -10. -10. -10. -10. -10.
        -1.8729547641963427e+000 -10. -10. -10. -10. -10. -10.</alpha>
      <index>
        0 1 2 3 4 5 6 7 8 9 10 11 12 13 14 30 31 32 33 34 35 36 37 38 39
        40 41 42 43 44</index></_>
    <_>
      <sv_count>8</sv_count>
      <rho>-2.1404623985289750e-002</rho>
      <alpha>
        9.9026741825546925e+000 10. 10. 10. -10. -10. -10.
        -9.9026741825546925e+000</alpha>
      <index>
        7 11 13 14 45 46 49 50</index></_>
    <_>
      <sv_count>30</sv_count>
      <rho>-2.5721490383148193e-002</rho>
      <alpha>
        10. 10. 10. 10. 10. 10. 10. 10. 10. 10. 10. 10. 10. 10. 10. -10.
        -10. -10. -10. -10. -10. -10. -10. -10. -10. -10. -10. -10. -10.
        -10.</alpha>
      <index>
        15 16 17 18 19 20 21 22 23 24 25 26 27 28 29 30 31 32 33 34 35
        36 37 38 39 40 41 42 43 44</index></_>
    <_>
      <sv_count>16</sv_count>
      <rho>1.3821929693222046e-001</rho>
      <alpha>
        10. 10. 10. 10. 10. 10. 10. 10. -10. -10. -10. -10. -10. -10.
        -10. -10.</alpha>
      <index>
        15 18 19 20 21 22 25 26 45 46 47 48 49 50 51 52</index></_>
    <_>
      <sv_count>20</sv_count>
      <rho>-8.2528743332638502e-002</rho>
      <alpha>
        10. 10. 10. 10. 10. 10. 4.8937995307380140e+000 10. 10. 10. -10.
        -10. -10. -10. -10. -10. -10. -10. -10. -4.8937995307380140e+000</alpha>
      <index>
        31 32 34 36 38 39 40 42 43 44 45 46 47 48 49 50 51 52 53 54</index></_></decision_functions></my_svm>
</opencv_storage>
